Version 8.0.0
Min label:0.000000
Max label:1.000000
bits:4
lda:2
0 ngram: 
0 skip: 
options: --lda 2 --lda_alpha 0.1 --lda_rho 0.1
0 40.522202 24.650486 
1 21.502831 45.422611 
2 15.988158 19.527431 
3 17.855217 23.896620 
4 48.710247 20.900000 
5 16.064837 25.081903 
6 20.153231 16.807280 
7 66.674484 25.200035 
8 59.174702 24.820871 
9 31.082426 15.063350 
10 23.573244 86.032028 
11 23.916210 18.787468 
12 15.177398 20.732389 
13 35.939278 29.850060 
14 26.116604 31.518139 
15 16.751745 71.338005 
